/** ==========================================================================
#    This file is part of the finite element software ParMooN.
# 
#    ParMooN (cmg.cds.iisc.ac.in/parmoon) is a free finite element software  
#    developed by the research groups of Prof. Sashikumaar Ganesan (IISc, Bangalore),
#    Prof. Volker John (WIAS Berlin) and Prof. Gunar Matthies (TU-Dresden):
#
#    ParMooN is free software: you can redistribute it and/or modify
#    it under the terms of the GNU Affero General Public License as
#    published by the Free Software Foundation, either version 3 of the
#    License, or (at your option) any later version.
#
#    ParMooN is distributed in the hope that it will be useful,
#    but WITHOUT ANY WARRANTY; without even the implied warranty of
#    MERCHANTABILITY or FITNESS FOR A PARTICULAR PURPOSE.  See the
#    GNU Affero General Public License for more details.
#
#    You should have received a copy of the GNU Affero General Public License
#    along with ParMooN.  If not, see <http://www.gnu.org/licenses/>.
#
#    If your company is selling a software using ParMooN, please consider 
#    the option to obtain a commercial license for a fee. Please send 
#    corresponding requests to sashi@iisc.ac.in

# =========================================================================*/ 
   
/*
    TNodalFunctional3D(NodalFunctional3D id,
                       int n_allfunctionals, int *n_facefunctionals,
                       int n_pointsall, int *n_pointsface,
                       double *xi, double *eta, double *zeta,
                       double **xiarray, double **etaarray,
                       double **zetaarray,
                       DoubleFunctVect *evalall,
                       DoubleFunctVect *evalface);
*/

/* for all functionals */
#include <stdlib.h>


static double NF_D_H_Q2_3D_Weights[] = {
  0.4209147749053145E-1, 0.7891151579507055E-1,
  0.7891151579507055E-1, 0.4209147749053145E-1,
  0.7891151579507055E-1, 0.1479403360567813,
  0.1479403360567813, 0.7891151579507055E-1,
  0.7891151579507055E-1, 0.1479403360567813,
  0.1479403360567813, 0.7891151579507055E-1,
  0.4209147749053145E-1, 0.7891151579507055E-1,
  0.7891151579507055E-1, 0.4209147749053145E-1,
  0.7891151579507055E-1, 0.1479403360567813,
  0.1479403360567813, 0.7891151579507055E-1,
  0.1479403360567813, 0.277352966953913,
  0.277352966953913, 0.1479403360567813,
  0.1479403360567813, 0.277352966953913,
  0.277352966953913, 0.1479403360567813,
  0.7891151579507055E-1, 0.1479403360567813,
  0.1479403360567813, 0.7891151579507055E-1,
  0.7891151579507055E-1, 0.1479403360567813,
  0.1479403360567813, 0.7891151579507055E-1,
  0.1479403360567813, 0.277352966953913,
  0.277352966953913, 0.1479403360567813,
  0.1479403360567813, 0.277352966953913,
  0.277352966953913, 0.1479403360567813,
  0.7891151579507055E-1, 0.1479403360567813,
  0.1479403360567813, 0.7891151579507055E-1,
  0.4209147749053145E-1, 0.7891151579507055E-1,
  0.7891151579507055E-1, 0.4209147749053145E-1,
  0.7891151579507055E-1, 0.1479403360567813,
  0.1479403360567813, 0.7891151579507055E-1,
  0.7891151579507055E-1, 0.1479403360567813,
  0.1479403360567813, 0.7891151579507055E-1,
  0.4209147749053145E-1, 0.7891151579507055E-1,
  0.7891151579507055E-1, 0.4209147749053145E-1
};

static double NF_D_H_Q2_3D_Xi[]   = {
  -0.86113631159405257522394649,-0.33998104358485626480266576, 0.33998104358485626480266576,
   0.86113631159405257522394649,
  -0.86113631159405257522394649,-0.33998104358485626480266576, 0.33998104358485626480266576,
   0.86113631159405257522394649,
  -0.86113631159405257522394649,-0.33998104358485626480266576, 0.33998104358485626480266576,
   0.86113631159405257522394649,
  -0.86113631159405257522394649,-0.33998104358485626480266576, 0.33998104358485626480266576,
   0.86113631159405257522394649,
  -0.86113631159405257522394649,-0.33998104358485626480266576, 0.33998104358485626480266576,
   0.86113631159405257522394649,
  -0.86113631159405257522394649,-0.33998104358485626480266576, 0.33998104358485626480266576,
   0.86113631159405257522394649,
  -0.86113631159405257522394649,-0.33998104358485626480266576, 0.33998104358485626480266576,
   0.86113631159405257522394649,
  -0.86113631159405257522394649,-0.33998104358485626480266576, 0.33998104358485626480266576,
   0.86113631159405257522394649,
  -0.86113631159405257522394649,-0.33998104358485626480266576, 0.33998104358485626480266576,
   0.86113631159405257522394649,
  -0.86113631159405257522394649,-0.33998104358485626480266576, 0.33998104358485626480266576,
   0.86113631159405257522394649,
  -0.86113631159405257522394649,-0.33998104358485626480266576, 0.33998104358485626480266576,
   0.86113631159405257522394649,
  -0.86113631159405257522394649,-0.33998104358485626480266576, 0.33998104358485626480266576,
   0.86113631159405257522394649,
  -0.86113631159405257522394649,-0.33998104358485626480266576, 0.33998104358485626480266576,
   0.86113631159405257522394649,
  -0.86113631159405257522394649,-0.33998104358485626480266576, 0.33998104358485626480266576,
   0.86113631159405257522394649,
  -0.86113631159405257522394649,-0.33998104358485626480266576, 0.33998104358485626480266576,
   0.86113631159405257522394649,
  -0.86113631159405257522394649,-0.33998104358485626480266576, 0.33998104358485626480266576,
   0.86113631159405257522394649
} ;
static double NF_D_H_Q2_3D_Eta[]  = {
    -0.86113631159405257522394649,-0.86113631159405257522394649,-0.86113631159405257522394649,
    -0.86113631159405257522394649,
    -0.33998104358485626480266576,-0.33998104358485626480266576,-0.33998104358485626480266576,
    -0.33998104358485626480266576,
     0.33998104358485626480266576, 0.33998104358485626480266576, 0.33998104358485626480266576,
     0.33998104358485626480266576,
     0.86113631159405257522394649, 0.86113631159405257522394649, 0.86113631159405257522394649,
     0.86113631159405257522394649,
    -0.86113631159405257522394649,-0.86113631159405257522394649,-0.86113631159405257522394649,
    -0.86113631159405257522394649,
    -0.33998104358485626480266576,-0.33998104358485626480266576,-0.33998104358485626480266576,
    -0.33998104358485626480266576,
     0.33998104358485626480266576, 0.33998104358485626480266576, 0.33998104358485626480266576,
     0.33998104358485626480266576,
     0.86113631159405257522394649, 0.86113631159405257522394649, 0.86113631159405257522394649,
     0.86113631159405257522394649,
    -0.86113631159405257522394649,-0.86113631159405257522394649,-0.86113631159405257522394649,
    -0.86113631159405257522394649,
    -0.33998104358485626480266576,-0.33998104358485626480266576,-0.33998104358485626480266576,
    -0.33998104358485626480266576,
     0.33998104358485626480266576, 0.33998104358485626480266576, 0.33998104358485626480266576,
     0.33998104358485626480266576,
     0.86113631159405257522394649, 0.86113631159405257522394649, 0.86113631159405257522394649,
     0.86113631159405257522394649,
    -0.86113631159405257522394649,-0.86113631159405257522394649,-0.86113631159405257522394649,
    -0.86113631159405257522394649,
    -0.33998104358485626480266576,-0.33998104358485626480266576,-0.33998104358485626480266576,
    -0.33998104358485626480266576,
     0.33998104358485626480266576, 0.33998104358485626480266576, 0.33998104358485626480266576,
     0.33998104358485626480266576,
     0.86113631159405257522394649, 0.86113631159405257522394649, 0.86113631159405257522394649,
     0.86113631159405257522394649
};
static double NF_D_H_Q2_3D_Zeta[] = {
    -0.86113631159405257522394649,-0.86113631159405257522394649,-0.86113631159405257522394649,
    -0.86113631159405257522394649,
    -0.86113631159405257522394649,-0.86113631159405257522394649,-0.86113631159405257522394649,
    -0.86113631159405257522394649,
    -0.86113631159405257522394649,-0.86113631159405257522394649,-0.86113631159405257522394649,
    -0.86113631159405257522394649,
    -0.86113631159405257522394649,-0.86113631159405257522394649,-0.86113631159405257522394649,
    -0.86113631159405257522394649,
    -0.33998104358485626480266576,-0.33998104358485626480266576,-0.33998104358485626480266576,
    -0.33998104358485626480266576,
    -0.33998104358485626480266576,-0.33998104358485626480266576,-0.33998104358485626480266576,
    -0.33998104358485626480266576,
    -0.33998104358485626480266576,-0.33998104358485626480266576,-0.33998104358485626480266576,
    -0.33998104358485626480266576,
    -0.33998104358485626480266576,-0.33998104358485626480266576,-0.33998104358485626480266576,
    -0.33998104358485626480266576,
     0.33998104358485626480266576, 0.33998104358485626480266576, 0.33998104358485626480266576,
     0.33998104358485626480266576,
     0.33998104358485626480266576, 0.33998104358485626480266576, 0.33998104358485626480266576,
     0.33998104358485626480266576,
     0.33998104358485626480266576, 0.33998104358485626480266576, 0.33998104358485626480266576,
     0.33998104358485626480266576,
     0.33998104358485626480266576, 0.33998104358485626480266576, 0.33998104358485626480266576,
     0.33998104358485626480266576,
     0.86113631159405257522394649, 0.86113631159405257522394649, 0.86113631159405257522394649,
     0.86113631159405257522394649,
     0.86113631159405257522394649, 0.86113631159405257522394649, 0.86113631159405257522394649,
     0.86113631159405257522394649,
     0.86113631159405257522394649, 0.86113631159405257522394649, 0.86113631159405257522394649,
     0.86113631159405257522394649,
     0.86113631159405257522394649, 0.86113631159405257522394649, 0.86113631159405257522394649,
     0.86113631159405257522394649
};
//2nd degree
static double NF_D_H_Q2_3D_XiXi[] = {
    1.2246672414374275561499417,-0.65323867000885615929917094,-0.65323867000885615929917094,1.2246672414374275561499417,1.2246672414374275561499417,-0.65323867000885615929917094,-0.65323867000885615929917094,1.2246672414374275561499417,1.2246672414374275561499417,-0.65323867000885615929917094,-0.65323867000885615929917094,1.2246672414374275561499417,1.2246672414374275561499417,-0.65323867000885615929917094,-0.65323867000885615929917094,1.2246672414374275561499417,1.2246672414374275561499417,-0.65323867000885615929917094,-0.65323867000885615929917094,1.2246672414374275561499417,1.2246672414374275561499417,-0.65323867000885615929917094,-0.65323867000885615929917094,1.2246672414374275561499417,1.2246672414374275561499417,-0.65323867000885615929917094,-0.65323867000885615929917094,1.2246672414374275561499417,1.2246672414374275561499417,-0.65323867000885615929917094,-0.65323867000885615929917094,1.2246672414374275561499417,1.2246672414374275561499417,-0.65323867000885615929917094,-0.65323867000885615929917094,1.2246672414374275561499417,1.2246672414374275561499417,-0.65323867000885615929917094,-0.65323867000885615929917094,1.2246672414374275561499417,1.2246672414374275561499417,-0.65323867000885615929917094,-0.65323867000885615929917094,1.2246672414374275561499417,1.2246672414374275561499417,-0.65323867000885615929917094,-0.65323867000885615929917094,1.2246672414374275561499417,1.2246672414374275561499417,-0.65323867000885615929917094,-0.65323867000885615929917094,1.2246672414374275561499417,1.2246672414374275561499417,-0.65323867000885615929917094,-0.65323867000885615929917094,1.2246672414374275561499417,1.2246672414374275561499417,-0.65323867000885615929917094,-0.65323867000885615929917094,1.2246672414374275561499417,1.2246672414374275561499417,-0.65323867000885615929917094,-0.65323867000885615929917094,1.2246672414374275561499417
};
static double NF_D_H_Q2_3D_EtaEta[] = {
    1.2246672414374275561499417,1.2246672414374275561499417,1.2246672414374275561499417,1.2246672414374275561499417,-0.65323867000885615929917094,-0.65323867000885615929917094,-0.65323867000885615929917094,-0.65323867000885615929917094,-0.65323867000885615929917094,-0.65323867000885615929917094,-0.65323867000885615929917094,-0.65323867000885615929917094,1.2246672414374275561499417,1.2246672414374275561499417,1.2246672414374275561499417,1.2246672414374275561499417,1.2246672414374275561499417,1.2246672414374275561499417,1.2246672414374275561499417,1.2246672414374275561499417,-0.65323867000885615929917094,-0.65323867000885615929917094,-0.65323867000885615929917094,-0.65323867000885615929917094,-0.65323867000885615929917094,-0.65323867000885615929917094,-0.65323867000885615929917094,-0.65323867000885615929917094,1.2246672414374275561499417,1.2246672414374275561499417,1.2246672414374275561499417,1.2246672414374275561499417,1.2246672414374275561499417,1.2246672414374275561499417,1.2246672414374275561499417,1.2246672414374275561499417,-0.65323867000885615929917094,-0.65323867000885615929917094,-0.65323867000885615929917094,-0.65323867000885615929917094,-0.65323867000885615929917094,-0.65323867000885615929917094,-0.65323867000885615929917094,-0.65323867000885615929917094,1.2246672414374275561499417,1.2246672414374275561499417,1.2246672414374275561499417,1.2246672414374275561499417,1.2246672414374275561499417,1.2246672414374275561499417,1.2246672414374275561499417,1.2246672414374275561499417,-0.65323867000885615929917094,-0.65323867000885615929917094,-0.65323867000885615929917094,-0.65323867000885615929917094,-0.65323867000885615929917094,-0.65323867000885615929917094,-0.65323867000885615929917094,-0.65323867000885615929917094,1.2246672414374275561499417,1.2246672414374275561499417,1.2246672414374275561499417,1.2246672414374275561499417
};
static double NF_D_H_Q2_3D_ZetaZeta[] = {
    1.2246672414374275561499417,1.2246672414374275561499417,1.2246672414374275561499417,1.2246672414374275561499417,1.2246672414374275561499417,1.2246672414374275561499417,1.2246672414374275561499417,1.2246672414374275561499417,1.2246672414374275561499417,1.2246672414374275561499417,1.2246672414374275561499417,1.2246672414374275561499417,1.2246672414374275561499417,1.2246672414374275561499417,1.2246672414374275561499417,1.2246672414374275561499417,-0.65323867000885615929917094,-0.65323867000885615929917094,-0.65323867000885615929917094,-0.65323867000885615929917094,-0.65323867000885615929917094,-0.65323867000885615929917094,-0.65323867000885615929917094,-0.65323867000885615929917094,-0.65323867000885615929917094,-0.65323867000885615929917094,-0.65323867000885615929917094,-0.65323867000885615929917094,-0.65323867000885615929917094,-0.65323867000885615929917094,-0.65323867000885615929917094,-0.65323867000885615929917094,-0.65323867000885615929917094,-0.65323867000885615929917094,-0.65323867000885615929917094,-0.65323867000885615929917094,-0.65323867000885615929917094,-0.65323867000885615929917094,-0.65323867000885615929917094,-0.65323867000885615929917094,-0.65323867000885615929917094,-0.65323867000885615929917094,-0.65323867000885615929917094,-0.65323867000885615929917094,-0.65323867000885615929917094,-0.65323867000885615929917094,-0.65323867000885615929917094,-0.65323867000885615929917094,1.2246672414374275561499417,1.2246672414374275561499417,1.2246672414374275561499417,1.2246672414374275561499417,1.2246672414374275561499417,1.2246672414374275561499417,1.2246672414374275561499417,1.2246672414374275561499417,1.2246672414374275561499417,1.2246672414374275561499417,1.2246672414374275561499417,1.2246672414374275561499417,1.2246672414374275561499417,1.2246672414374275561499417,1.2246672414374275561499417,1.2246672414374275561499417
};
//3rd degree
static double NF_D_H_Q2_3D_XiXiEta[] = {
    -1.0546054312214894199684068,0.56252753888203088639130556,0.56252753888203088639130556,-1.0546054312214894199684068,-0.41636364678808374106822043,0.22208876473959446307127052,0.22208876473959446307127052,-0.41636364678808374106822043,0.41636364678808374106822043,-0.22208876473959446307127052,-0.22208876473959446307127052,0.41636364678808374106822043,1.0546054312214894199684068,-0.56252753888203088639130556,-0.56252753888203088639130556,1.0546054312214894199684068,-1.0546054312214894199684068,0.56252753888203088639130556,0.56252753888203088639130556,-1.0546054312214894199684068,-0.41636364678808374106822043,0.22208876473959446307127052,0.22208876473959446307127052,-0.41636364678808374106822043,0.41636364678808374106822043,-0.22208876473959446307127052,-0.22208876473959446307127052,0.41636364678808374106822043,1.0546054312214894199684068,-0.56252753888203088639130556,-0.56252753888203088639130556,1.0546054312214894199684068,-1.0546054312214894199684068,0.56252753888203088639130556,0.56252753888203088639130556,-1.0546054312214894199684068,-0.41636364678808374106822043,0.22208876473959446307127052,0.22208876473959446307127052,-0.41636364678808374106822043,0.41636364678808374106822043,-0.22208876473959446307127052,-0.22208876473959446307127052,0.41636364678808374106822043,1.0546054312214894199684068,-0.56252753888203088639130556,-0.56252753888203088639130556,1.0546054312214894199684068,-1.0546054312214894199684068,0.56252753888203088639130556,0.56252753888203088639130556,-1.0546054312214894199684068,-0.41636364678808374106822043,0.22208876473959446307127052,0.22208876473959446307127052,-0.41636364678808374106822043,0.41636364678808374106822043,-0.22208876473959446307127052,-0.22208876473959446307127052,0.41636364678808374106822043,1.0546054312214894199684068,-0.56252753888203088639130556,-0.56252753888203088639130556,1.0546054312214894199684068
};
static double NF_D_H_Q2_3D_XiXiZeta[] = {
    -1.0546054312214894199684068,0.56252753888203088639130556,0.56252753888203088639130556,-1.0546054312214894199684068,-1.0546054312214894199684068,0.56252753888203088639130556,0.56252753888203088639130556,-1.0546054312214894199684068,-1.0546054312214894199684068,0.56252753888203088639130556,0.56252753888203088639130556,-1.0546054312214894199684068,-1.0546054312214894199684068,0.56252753888203088639130556,0.56252753888203088639130556,-1.0546054312214894199684068,-0.41636364678808374106822043,0.22208876473959446307127052,0.22208876473959446307127052,-0.41636364678808374106822043,-0.41636364678808374106822043,0.22208876473959446307127052,0.22208876473959446307127052,-0.41636364678808374106822043,-0.41636364678808374106822043,0.22208876473959446307127052,0.22208876473959446307127052,-0.41636364678808374106822043,-0.41636364678808374106822043,0.22208876473959446307127052,0.22208876473959446307127052,-0.41636364678808374106822043,0.41636364678808374106822043,-0.22208876473959446307127052,-0.22208876473959446307127052,0.41636364678808374106822043,0.41636364678808374106822043,-0.22208876473959446307127052,-0.22208876473959446307127052,0.41636364678808374106822043,0.41636364678808374106822043,-0.22208876473959446307127052,-0.22208876473959446307127052,0.41636364678808374106822043,0.41636364678808374106822043,-0.22208876473959446307127052,-0.22208876473959446307127052,0.41636364678808374106822043,1.0546054312214894199684068,-0.56252753888203088639130556,-0.56252753888203088639130556,1.0546054312214894199684068,1.0546054312214894199684068,-0.56252753888203088639130556,-0.56252753888203088639130556,1.0546054312214894199684068,1.0546054312214894199684068,-0.56252753888203088639130556,-0.56252753888203088639130556,1.0546054312214894199684068,1.0546054312214894199684068,-0.56252753888203088639130556,-0.56252753888203088639130556,1.0546054312214894199684068
};
static double NF_D_H_Q2_3D_XiEtaEta[] = {
    -1.0546054312214894199684068,-0.41636364678808374106822043,0.41636364678808374106822043,1.0546054312214894199684068,0.56252753888203088639130556,0.22208876473959446307127052,-0.22208876473959446307127052,-0.56252753888203088639130556,0.56252753888203088639130556,0.22208876473959446307127052,-0.22208876473959446307127052,-0.56252753888203088639130556,-1.0546054312214894199684068,-0.41636364678808374106822043,0.41636364678808374106822043,1.0546054312214894199684068,-1.0546054312214894199684068,-0.41636364678808374106822043,0.41636364678808374106822043,1.0546054312214894199684068,0.56252753888203088639130556,0.22208876473959446307127052,-0.22208876473959446307127052,-0.56252753888203088639130556,0.56252753888203088639130556,0.22208876473959446307127052,-0.22208876473959446307127052,-0.56252753888203088639130556,-1.0546054312214894199684068,-0.41636364678808374106822043,0.41636364678808374106822043,1.0546054312214894199684068,-1.0546054312214894199684068,-0.41636364678808374106822043,0.41636364678808374106822043,1.0546054312214894199684068,0.56252753888203088639130556,0.22208876473959446307127052,-0.22208876473959446307127052,-0.56252753888203088639130556,0.56252753888203088639130556,0.22208876473959446307127052,-0.22208876473959446307127052,-0.56252753888203088639130556,-1.0546054312214894199684068,-0.41636364678808374106822043,0.41636364678808374106822043,1.0546054312214894199684068,-1.0546054312214894199684068,-0.41636364678808374106822043,0.41636364678808374106822043,1.0546054312214894199684068,0.56252753888203088639130556,0.22208876473959446307127052,-0.22208876473959446307127052,-0.56252753888203088639130556,0.56252753888203088639130556,0.22208876473959446307127052,-0.22208876473959446307127052,-0.56252753888203088639130556,-1.0546054312214894199684068,-0.41636364678808374106822043,0.41636364678808374106822043,1.0546054312214894199684068
};
static double NF_D_H_Q2_3D_XiZetaZeta[] = {
    -1.0546054312214894199684068,-0.41636364678808374106822043,0.41636364678808374106822043,1.0546054312214894199684068,-1.0546054312214894199684068,-0.41636364678808374106822043,0.41636364678808374106822043,1.0546054312214894199684068,-1.0546054312214894199684068,-0.41636364678808374106822043,0.41636364678808374106822043,1.0546054312214894199684068,-1.0546054312214894199684068,-0.41636364678808374106822043,0.41636364678808374106822043,1.0546054312214894199684068,0.56252753888203088639130556,0.22208876473959446307127052,-0.22208876473959446307127052,-0.56252753888203088639130556,0.56252753888203088639130556,0.22208876473959446307127052,-0.22208876473959446307127052,-0.56252753888203088639130556,0.56252753888203088639130556,0.22208876473959446307127052,-0.22208876473959446307127052,-0.56252753888203088639130556,0.56252753888203088639130556,0.22208876473959446307127052,-0.22208876473959446307127052,-0.56252753888203088639130556,0.56252753888203088639130556,0.22208876473959446307127052,-0.22208876473959446307127052,-0.56252753888203088639130556,0.56252753888203088639130556,0.22208876473959446307127052,-0.22208876473959446307127052,-0.56252753888203088639130556,0.56252753888203088639130556,0.22208876473959446307127052,-0.22208876473959446307127052,-0.56252753888203088639130556,0.56252753888203088639130556,0.22208876473959446307127052,-0.22208876473959446307127052,-0.56252753888203088639130556,-1.0546054312214894199684068,-0.41636364678808374106822043,0.41636364678808374106822043,1.0546054312214894199684068,-1.0546054312214894199684068,-0.41636364678808374106822043,0.41636364678808374106822043,1.0546054312214894199684068,-1.0546054312214894199684068,-0.41636364678808374106822043,0.41636364678808374106822043,1.0546054312214894199684068,-1.0546054312214894199684068,-0.41636364678808374106822043,0.41636364678808374106822043,1.0546054312214894199684068
};
static double NF_D_H_Q2_3D_EtaEtaZeta[] = {
    -1.0546054312214894199684068,-1.0546054312214894199684068,-1.0546054312214894199684068,-1.0546054312214894199684068,0.56252753888203088639130556,0.56252753888203088639130556,0.56252753888203088639130556,0.56252753888203088639130556,0.56252753888203088639130556,0.56252753888203088639130556,0.56252753888203088639130556,0.56252753888203088639130556,-1.0546054312214894199684068,-1.0546054312214894199684068,-1.0546054312214894199684068,-1.0546054312214894199684068,-0.41636364678808374106822043,-0.41636364678808374106822043,-0.41636364678808374106822043,-0.41636364678808374106822043,0.22208876473959446307127052,0.22208876473959446307127052,0.22208876473959446307127052,0.22208876473959446307127052,0.22208876473959446307127052,0.22208876473959446307127052,0.22208876473959446307127052,0.22208876473959446307127052,-0.41636364678808374106822043,-0.41636364678808374106822043,-0.41636364678808374106822043,-0.41636364678808374106822043,0.41636364678808374106822043,0.41636364678808374106822043,0.41636364678808374106822043,0.41636364678808374106822043,-0.22208876473959446307127052,-0.22208876473959446307127052,-0.22208876473959446307127052,-0.22208876473959446307127052,-0.22208876473959446307127052,-0.22208876473959446307127052,-0.22208876473959446307127052,-0.22208876473959446307127052,0.41636364678808374106822043,0.41636364678808374106822043,0.41636364678808374106822043,0.41636364678808374106822043,1.0546054312214894199684068,1.0546054312214894199684068,1.0546054312214894199684068,1.0546054312214894199684068,-0.56252753888203088639130556,-0.56252753888203088639130556,-0.56252753888203088639130556,-0.56252753888203088639130556,-0.56252753888203088639130556,-0.56252753888203088639130556,-0.56252753888203088639130556,-0.56252753888203088639130556,1.0546054312214894199684068,1.0546054312214894199684068,1.0546054312214894199684068,1.0546054312214894199684068
};
static double NF_D_H_Q2_3D_EtaZetaZeta[] = {
    -1.0546054312214894199684068,-1.0546054312214894199684068,-1.0546054312214894199684068,-1.0546054312214894199684068,-0.41636364678808374106822043,-0.41636364678808374106822043,-0.41636364678808374106822043,-0.41636364678808374106822043,0.41636364678808374106822043,0.41636364678808374106822043,0.41636364678808374106822043,0.41636364678808374106822043,1.0546054312214894199684068,1.0546054312214894199684068,1.0546054312214894199684068,1.0546054312214894199684068,0.56252753888203088639130556,0.56252753888203088639130556,0.56252753888203088639130556,0.56252753888203088639130556,0.22208876473959446307127052,0.22208876473959446307127052,0.22208876473959446307127052,0.22208876473959446307127052,-0.22208876473959446307127052,-0.22208876473959446307127052,-0.22208876473959446307127052,-0.22208876473959446307127052,-0.56252753888203088639130556,-0.56252753888203088639130556,-0.56252753888203088639130556,-0.56252753888203088639130556,0.56252753888203088639130556,0.56252753888203088639130556,0.56252753888203088639130556,0.56252753888203088639130556,0.22208876473959446307127052,0.22208876473959446307127052,0.22208876473959446307127052,0.22208876473959446307127052,-0.22208876473959446307127052,-0.22208876473959446307127052,-0.22208876473959446307127052,-0.22208876473959446307127052,-0.56252753888203088639130556,-0.56252753888203088639130556,-0.56252753888203088639130556,-0.56252753888203088639130556,-1.0546054312214894199684068,-1.0546054312214894199684068,-1.0546054312214894199684068,-1.0546054312214894199684068,-0.41636364678808374106822043,-0.41636364678808374106822043,-0.41636364678808374106822043,-0.41636364678808374106822043,0.41636364678808374106822043,0.41636364678808374106822043,0.41636364678808374106822043,0.41636364678808374106822043,1.0546054312214894199684068,1.0546054312214894199684068,1.0546054312214894199684068,1.0546054312214894199684068
};
//4th degree
static double NF_D_H_Q2_3D_XiXiEtaEta[] = {
    1.4998098522499585527611998,-0.79999999999999993338661852,-0.79999999999999993338661852,1.4998098522499585527611998,-0.79999999999999993338661852,0.42672075999493924713945603,0.42672075999493924713945603,-0.79999999999999993338661852,-0.79999999999999993338661852,0.42672075999493924713945603,0.42672075999493924713945603,-0.79999999999999993338661852,1.4998098522499585527611998,-0.79999999999999993338661852,-0.79999999999999993338661852,1.4998098522499585527611998,1.4998098522499585527611998,-0.79999999999999993338661852,-0.79999999999999993338661852,1.4998098522499585527611998,-0.79999999999999993338661852,0.42672075999493924713945603,0.42672075999493924713945603,-0.79999999999999993338661852,-0.79999999999999993338661852,0.42672075999493924713945603,0.42672075999493924713945603,-0.79999999999999993338661852,1.4998098522499585527611998,-0.79999999999999993338661852,-0.79999999999999993338661852,1.4998098522499585527611998,1.4998098522499585527611998,-0.79999999999999993338661852,-0.79999999999999993338661852,1.4998098522499585527611998,-0.79999999999999993338661852,0.42672075999493924713945603,0.42672075999493924713945603,-0.79999999999999993338661852,-0.79999999999999993338661852,0.42672075999493924713945603,0.42672075999493924713945603,-0.79999999999999993338661852,1.4998098522499585527611998,-0.79999999999999993338661852,-0.79999999999999993338661852,1.4998098522499585527611998,1.4998098522499585527611998,-0.79999999999999993338661852,-0.79999999999999993338661852,1.4998098522499585527611998,-0.79999999999999993338661852,0.42672075999493924713945603,0.42672075999493924713945603,-0.79999999999999993338661852,-0.79999999999999993338661852,0.42672075999493924713945603,0.42672075999493924713945603,-0.79999999999999993338661852,1.4998098522499585527611998,-0.79999999999999993338661852,-0.79999999999999993338661852,1.4998098522499585527611998
};
static double NF_D_H_Q2_3D_XiXiEtaZeta[] = {
    0.90815903122912866596294634,-0.48441289000295206790269731,-0.48441289000295206790269731,0.90815903122912866596294634,0.3585458550769393126778084,-0.19124869971433364201907068,-0.19124869971433364201907068,0.3585458550769393126778084,-0.3585458550769393126778084,0.19124869971433364201907068,0.19124869971433364201907068,-0.3585458550769393126778084,-0.90815903122912866596294634,0.48441289000295206790269731,0.48441289000295206790269731,-0.90815903122912866596294634,0.3585458550769393126778084,-0.1912486997143336697746463,-0.1912486997143336697746463,0.3585458550769393126778084,0.14155574714580920758777438,-0.075505970004638947590258624,-0.075505970004638947590258624,0.14155574714580920758777438,-0.14155574714580920758777438,0.075505970004638947590258624,0.075505970004638947590258624,-0.14155574714580920758777438,-0.3585458550769393126778084,0.1912486997143336697746463,0.1912486997143336697746463,-0.3585458550769393126778084,-0.3585458550769393126778084,0.1912486997143336697746463,0.1912486997143336697746463,-0.3585458550769393126778084,-0.14155574714580920758777438,0.075505970004638947590258624,0.075505970004638947590258624,-0.14155574714580920758777438,0.14155574714580920758777438,-0.075505970004638947590258624,-0.075505970004638947590258624,0.14155574714580920758777438,0.3585458550769393126778084,-0.1912486997143336697746463,-0.1912486997143336697746463,0.3585458550769393126778084,-0.90815903122912866596294634,0.48441289000295206790269731,0.48441289000295206790269731,-0.90815903122912866596294634,-0.3585458550769393126778084,0.19124869971433364201907068,0.19124869971433364201907068,-0.3585458550769393126778084,0.3585458550769393126778084,-0.19124869971433364201907068,-0.19124869971433364201907068,0.3585458550769393126778084,0.90815903122912866596294634,-0.48441289000295206790269731,-0.48441289000295206790269731,0.90815903122912866596294634
};
static double NF_D_H_Q2_3D_XiXiZetaZeta[] = {
    1.4998098522499585527611998,-0.79999999999999993338661852,-0.79999999999999993338661852,1.4998098522499585527611998,1.4998098522499585527611998,-0.79999999999999993338661852,-0.79999999999999993338661852,1.4998098522499585527611998,1.4998098522499585527611998,-0.79999999999999993338661852,-0.79999999999999993338661852,1.4998098522499585527611998,1.4998098522499585527611998,-0.79999999999999993338661852,-0.79999999999999993338661852,1.4998098522499585527611998,-0.79999999999999993338661852,0.42672075999493924713945603,0.42672075999493924713945603,-0.79999999999999993338661852,-0.79999999999999993338661852,0.42672075999493924713945603,0.42672075999493924713945603,-0.79999999999999993338661852,-0.79999999999999993338661852,0.42672075999493924713945603,0.42672075999493924713945603,-0.79999999999999993338661852,-0.79999999999999993338661852,0.42672075999493924713945603,0.42672075999493924713945603,-0.79999999999999993338661852,-0.79999999999999993338661852,0.42672075999493924713945603,0.42672075999493924713945603,-0.79999999999999993338661852,-0.79999999999999993338661852,0.42672075999493924713945603,0.42672075999493924713945603,-0.79999999999999993338661852,-0.79999999999999993338661852,0.42672075999493924713945603,0.42672075999493924713945603,-0.79999999999999993338661852,-0.79999999999999993338661852,0.42672075999493924713945603,0.42672075999493924713945603,-0.79999999999999993338661852,1.4998098522499585527611998,-0.79999999999999993338661852,-0.79999999999999993338661852,1.4998098522499585527611998,1.4998098522499585527611998,-0.79999999999999993338661852,-0.79999999999999993338661852,1.4998098522499585527611998,1.4998098522499585527611998,-0.79999999999999993338661852,-0.79999999999999993338661852,1.4998098522499585527611998,1.4998098522499585527611998,-0.79999999999999993338661852,-0.79999999999999993338661852,1.4998098522499585527611998
};
static double NF_D_H_Q2_3D_XiEtaEtaZeta[] = {
    0.90815903122912866596294634,0.3585458550769393126778084,-0.3585458550769393126778084,-0.90815903122912866596294634,-0.48441289000295206790269731,-0.19124869971433364201907068,0.19124869971433364201907068,0.48441289000295206790269731,-0.48441289000295206790269731,-0.19124869971433364201907068,0.19124869971433364201907068,0.48441289000295206790269731,0.90815903122912866596294634,0.3585458550769393126778084,-0.3585458550769393126778084,-0.90815903122912866596294634,0.3585458550769393126778084,0.14155574714580920758777438,-0.14155574714580920758777438,-0.3585458550769393126778084,-0.1912486997143336697746463,-0.075505970004638947590258624,0.075505970004638947590258624,0.1912486997143336697746463,-0.1912486997143336697746463,-0.075505970004638947590258624,0.075505970004638947590258624,0.1912486997143336697746463,0.3585458550769393126778084,0.14155574714580920758777438,-0.14155574714580920758777438,-0.3585458550769393126778084,-0.3585458550769393126778084,-0.14155574714580920758777438,0.14155574714580920758777438,0.3585458550769393126778084,0.1912486997143336697746463,0.075505970004638947590258624,-0.075505970004638947590258624,-0.1912486997143336697746463,0.1912486997143336697746463,0.075505970004638947590258624,-0.075505970004638947590258624,-0.1912486997143336697746463,-0.3585458550769393126778084,-0.14155574714580920758777438,0.14155574714580920758777438,0.3585458550769393126778084,-0.90815903122912866596294634,-0.3585458550769393126778084,0.3585458550769393126778084,0.90815903122912866596294634,0.48441289000295206790269731,0.19124869971433364201907068,-0.19124869971433364201907068,-0.48441289000295206790269731,0.48441289000295206790269731,0.19124869971433364201907068,-0.19124869971433364201907068,-0.48441289000295206790269731,-0.90815903122912866596294634,-0.3585458550769393126778084,0.3585458550769393126778084,0.90815903122912866596294634
};
static double NF_D_H_Q2_3D_XiEtaZetaZeta[] = {
    0.90815903122912866596294634,0.3585458550769393126778084,-0.3585458550769393126778084,-0.90815903122912866596294634,0.3585458550769393126778084,0.14155574714580920758777438,-0.14155574714580920758777438,-0.3585458550769393126778084,-0.3585458550769393126778084,-0.14155574714580920758777438,0.14155574714580920758777438,0.3585458550769393126778084,-0.90815903122912866596294634,-0.3585458550769393126778084,0.3585458550769393126778084,0.90815903122912866596294634,-0.48441289000295206790269731,-0.19124869971433364201907068,0.19124869971433364201907068,0.48441289000295206790269731,-0.1912486997143336697746463,-0.075505970004638947590258624,0.075505970004638947590258624,0.1912486997143336697746463,0.1912486997143336697746463,0.075505970004638947590258624,-0.075505970004638947590258624,-0.1912486997143336697746463,0.48441289000295206790269731,0.19124869971433364201907068,-0.19124869971433364201907068,-0.48441289000295206790269731,-0.48441289000295206790269731,-0.19124869971433364201907068,0.19124869971433364201907068,0.48441289000295206790269731,-0.1912486997143336697746463,-0.075505970004638947590258624,0.075505970004638947590258624,0.1912486997143336697746463,0.1912486997143336697746463,0.075505970004638947590258624,-0.075505970004638947590258624,-0.1912486997143336697746463,0.48441289000295206790269731,0.19124869971433364201907068,-0.19124869971433364201907068,-0.48441289000295206790269731,0.90815903122912866596294634,0.3585458550769393126778084,-0.3585458550769393126778084,-0.90815903122912866596294634,0.3585458550769393126778084,0.14155574714580920758777438,-0.14155574714580920758777438,-0.3585458550769393126778084,-0.3585458550769393126778084,-0.14155574714580920758777438,0.14155574714580920758777438,0.3585458550769393126778084,-0.90815903122912866596294634,-0.3585458550769393126778084,0.3585458550769393126778084,0.90815903122912866596294634
};
static double NF_D_H_Q2_3D_EtaEtaZetaZeta[] = {
    1.4998098522499585527611998,1.4998098522499585527611998,1.4998098522499585527611998,1.4998098522499585527611998,-0.79999999999999993338661852,-0.79999999999999993338661852,-0.79999999999999993338661852,-0.79999999999999993338661852,-0.79999999999999993338661852,-0.79999999999999993338661852,-0.79999999999999993338661852,-0.79999999999999993338661852,1.4998098522499585527611998,1.4998098522499585527611998,1.4998098522499585527611998,1.4998098522499585527611998,-0.79999999999999993338661852,-0.79999999999999993338661852,-0.79999999999999993338661852,-0.79999999999999993338661852,0.42672075999493924713945603,0.42672075999493924713945603,0.42672075999493924713945603,0.42672075999493924713945603,0.42672075999493924713945603,0.42672075999493924713945603,0.42672075999493924713945603,0.42672075999493924713945603,-0.79999999999999993338661852,-0.79999999999999993338661852,-0.79999999999999993338661852,-0.79999999999999993338661852,-0.79999999999999993338661852,-0.79999999999999993338661852,-0.79999999999999993338661852,-0.79999999999999993338661852,0.42672075999493924713945603,0.42672075999493924713945603,0.42672075999493924713945603,0.42672075999493924713945603,0.42672075999493924713945603,0.42672075999493924713945603,0.42672075999493924713945603,0.42672075999493924713945603,-0.79999999999999993338661852,-0.79999999999999993338661852,-0.79999999999999993338661852,-0.79999999999999993338661852,1.4998098522499585527611998,1.4998098522499585527611998,1.4998098522499585527611998,1.4998098522499585527611998,-0.79999999999999993338661852,-0.79999999999999993338661852,-0.79999999999999993338661852,-0.79999999999999993338661852,-0.79999999999999993338661852,-0.79999999999999993338661852,-0.79999999999999993338661852,-0.79999999999999993338661852,1.4998098522499585527611998,1.4998098522499585527611998,1.4998098522499585527611998,1.4998098522499585527611998
};
//5th degree
static double NF_D_H_Q2_3D_XiXiEtaEtaZeta[] = {
    -1.2915407242589502789797962,0.68890904927524199141686267,0.68890904927524199141686267,-1.2915407242589502789797962,0.68890904927524199141686267,-0.36746474134265300071078286,-0.36746474134265300071078286,0.68890904927524199141686267,0.68890904927524199141686267,-0.36746474134265300071078286,-0.36746474134265300071078286,0.68890904927524199141686267,-1.2915407242589502789797962,0.68890904927524199141686267,0.68890904927524199141686267,-1.2915407242589502789797962,-0.50990691874678994999214865,0.271984834867884994746845,0.271984834867884994746845,-0.50990691874678994999214865,0.271984834867884994746845,-0.14507696930240243649024023,-0.14507696930240243649024023,0.271984834867884994746845,0.271984834867884994746845,-0.14507696930240243649024023,-0.14507696930240243649024023,0.271984834867884994746845,-0.50990691874678994999214865,0.271984834867884994746845,0.271984834867884994746845,-0.50990691874678994999214865,0.50990691874678994999214865,-0.271984834867884994746845,-0.271984834867884994746845,0.50990691874678994999214865,-0.271984834867884994746845,0.14507696930240243649024023,0.14507696930240243649024023,-0.271984834867884994746845,-0.271984834867884994746845,0.14507696930240243649024023,0.14507696930240243649024023,-0.271984834867884994746845,0.50990691874678994999214865,-0.271984834867884994746845,-0.271984834867884994746845,0.50990691874678994999214865,1.2915407242589502789797962,-0.68890904927524199141686267,-0.68890904927524199141686267,1.2915407242589502789797962,-0.68890904927524199141686267,0.36746474134265300071078286,0.36746474134265300071078286,-0.68890904927524199141686267,-0.68890904927524199141686267,0.36746474134265300071078286,0.36746474134265300071078286,-0.68890904927524199141686267,1.2915407242589502789797962,-0.68890904927524199141686267,-0.68890904927524199141686267,1.2915407242589502789797962
};
static double NF_D_H_Q2_3D_XiXiEtaZetaZeta[] = {
    -1.2915407242589502789797962,0.68890904927524199141686267,0.68890904927524199141686267,-1.2915407242589502789797962,-0.50990691874678994999214865,0.271984834867884994746845,0.271984834867884994746845,-0.50990691874678994999214865,0.50990691874678994999214865,-0.271984834867884994746845,-0.271984834867884994746845,0.50990691874678994999214865,1.2915407242589502789797962,-0.68890904927524199141686267,-0.68890904927524199141686267,1.2915407242589502789797962,0.68890904927524199141686267,-0.36746474134265300071078286,-0.36746474134265300071078286,0.68890904927524199141686267,0.271984834867884994746845,-0.14507696930240243649024023,-0.14507696930240243649024023,0.271984834867884994746845,-0.271984834867884994746845,0.14507696930240243649024023,0.14507696930240243649024023,-0.271984834867884994746845,-0.68890904927524199141686267,0.36746474134265300071078286,0.36746474134265300071078286,-0.68890904927524199141686267,0.68890904927524199141686267,-0.36746474134265300071078286,-0.36746474134265300071078286,0.68890904927524199141686267,0.271984834867884994746845,-0.14507696930240243649024023,-0.14507696930240243649024023,0.271984834867884994746845,-0.271984834867884994746845,0.14507696930240243649024023,0.14507696930240243649024023,-0.271984834867884994746845,-0.68890904927524199141686267,0.36746474134265300071078286,0.36746474134265300071078286,-0.68890904927524199141686267,-1.2915407242589502789797962,0.68890904927524199141686267,0.68890904927524199141686267,-1.2915407242589502789797962,-0.50990691874678994999214865,0.271984834867884994746845,0.271984834867884994746845,-0.50990691874678994999214865,0.50990691874678994999214865,-0.271984834867884994746845,-0.271984834867884994746845,0.50990691874678994999214865,1.2915407242589502789797962,-0.68890904927524199141686267,-0.68890904927524199141686267,1.2915407242589502789797962
};
static double NF_D_H_Q2_3D_XiEtaEtaZetaZeta[] = {
    -1.2915407242589502789797962,-0.50990691874678994999214865,0.50990691874678994999214865,1.2915407242589502789797962,0.68890904927524199141686267,0.271984834867884994746845,-0.271984834867884994746845,-0.68890904927524199141686267,0.68890904927524199141686267,0.271984834867884994746845,-0.271984834867884994746845,-0.68890904927524199141686267,-1.2915407242589502789797962,-0.50990691874678994999214865,0.50990691874678994999214865,1.2915407242589502789797962,0.68890904927524199141686267,0.271984834867884994746845,-0.271984834867884994746845,-0.68890904927524199141686267,-0.36746474134265300071078286,-0.14507696930240243649024023,0.14507696930240243649024023,0.36746474134265300071078286,-0.36746474134265300071078286,-0.14507696930240243649024023,0.14507696930240243649024023,0.36746474134265300071078286,0.68890904927524199141686267,0.271984834867884994746845,-0.271984834867884994746845,-0.68890904927524199141686267,0.68890904927524199141686267,0.271984834867884994746845,-0.271984834867884994746845,-0.68890904927524199141686267,-0.36746474134265300071078286,-0.14507696930240243649024023,0.14507696930240243649024023,0.36746474134265300071078286,-0.36746474134265300071078286,-0.14507696930240243649024023,0.14507696930240243649024023,0.36746474134265300071078286,0.68890904927524199141686267,0.271984834867884994746845,-0.271984834867884994746845,-0.68890904927524199141686267,-1.2915407242589502789797962,-0.50990691874678994999214865,0.50990691874678994999214865,1.2915407242589502789797962,0.68890904927524199141686267,0.271984834867884994746845,-0.271984834867884994746845,-0.68890904927524199141686267,0.68890904927524199141686267,0.271984834867884994746845,-0.271984834867884994746845,-0.68890904927524199141686267,-1.2915407242589502789797962,-0.50990691874678994999214865,0.50990691874678994999214865,1.2915407242589502789797962
};
//6th degree
static double NF_D_H_Q2_3D_XiXiEtaEtaZetaZeta[] = {
    1.8367679944356325449916767,-0.97973379314994191169319038,-0.97973379314994191169319038,1.8367679944356325449916767,-0.97973379314994191169319038,0.52259093600708483862149478,0.52259093600708483862149478,-0.97973379314994191169319038,-0.97973379314994191169319038,0.52259093600708483862149478,0.52259093600708483862149478,-0.97973379314994191169319038,1.8367679944356325449916767,-0.97973379314994191169319038,-0.97973379314994191169319038,1.8367679944356325449916767,-0.97973379314994202271549284,0.52259093600708483862149478,0.52259093600708483862149478,-0.97973379314994202271549284,0.52259093600708483862149478,-0.27875050172426241168466277,-0.27875050172426241168466277,0.52259093600708483862149478,0.52259093600708483862149478,-0.27875050172426241168466277,-0.27875050172426241168466277,0.52259093600708483862149478,-0.97973379314994202271549284,0.52259093600708483862149478,0.52259093600708483862149478,-0.97973379314994202271549284,-0.97973379314994202271549284,0.52259093600708483862149478,0.52259093600708483862149478,-0.97973379314994202271549284,0.52259093600708483862149478,-0.27875050172426241168466277,-0.27875050172426241168466277,0.52259093600708483862149478,0.52259093600708483862149478,-0.27875050172426241168466277,-0.27875050172426241168466277,0.52259093600708483862149478,-0.97973379314994202271549284,0.52259093600708483862149478,0.52259093600708483862149478,-0.97973379314994202271549284,1.8367679944356325449916767,-0.97973379314994191169319038,-0.97973379314994191169319038,1.8367679944356325449916767,-0.97973379314994191169319038,0.52259093600708483862149478,0.52259093600708483862149478,-0.97973379314994191169319038,-0.97973379314994191169319038,0.52259093600708483862149478,0.52259093600708483862149478,-0.97973379314994191169319038,1.8367679944356325449916767,-0.97973379314994191169319038,-0.97973379314994191169319038,1.8367679944356325449916767
};




/* face 0                               0 */
static double *NF_D_H_Q2_3D_F0_Xi = NULL;
static double *NF_D_H_Q2_3D_F0_Eta = NULL;
static double *NF_D_H_Q2_3D_F0_Zeta = NULL;

/* face 1                               1 */
static double *NF_D_H_Q2_3D_F1_Xi = NULL;
static double *NF_D_H_Q2_3D_F1_Eta = NULL;
static double *NF_D_H_Q2_3D_F1_Zeta = NULL;

/* face 2                               2 */
static double *NF_D_H_Q2_3D_F2_Xi = NULL;
static double *NF_D_H_Q2_3D_F2_Eta = NULL;
static double *NF_D_H_Q2_3D_F2_Zeta = NULL;

/* face 3                               3 */
static double *NF_D_H_Q2_3D_F3_Xi = NULL;
static double *NF_D_H_Q2_3D_F3_Eta = NULL;
static double *NF_D_H_Q2_3D_F3_Zeta = NULL;

/* face 4                               4 */
static double *NF_D_H_Q2_3D_F4_Xi = NULL;
static double *NF_D_H_Q2_3D_F4_Eta = NULL;
static double *NF_D_H_Q2_3D_F4_Zeta = NULL;

/* face 5                               5 */
static double *NF_D_H_Q2_3D_F5_Xi = NULL;
static double *NF_D_H_Q2_3D_F5_Eta = NULL;
static double *NF_D_H_Q2_3D_F5_Zeta = NULL;

static double *NF_D_H_Q2_3D_XiArray[6] = {
                        NF_D_H_Q2_3D_F0_Xi,
                        NF_D_H_Q2_3D_F1_Xi,
                        NF_D_H_Q2_3D_F2_Xi,
                        NF_D_H_Q2_3D_F3_Xi,
                        NF_D_H_Q2_3D_F4_Xi,
                        NF_D_H_Q2_3D_F5_Xi };

static double *NF_D_H_Q2_3D_EtaArray[6] = {
                        NF_D_H_Q2_3D_F0_Eta,
                        NF_D_H_Q2_3D_F1_Eta,
                        NF_D_H_Q2_3D_F2_Eta,
                        NF_D_H_Q2_3D_F3_Eta,
                        NF_D_H_Q2_3D_F4_Eta,
                        NF_D_H_Q2_3D_F5_Eta };

static double *NF_D_H_Q2_3D_ZetaArray[6] = {
                        NF_D_H_Q2_3D_F0_Zeta,
                        NF_D_H_Q2_3D_F1_Zeta,
                        NF_D_H_Q2_3D_F2_Zeta,
                        NF_D_H_Q2_3D_F3_Zeta,
                        NF_D_H_Q2_3D_F4_Zeta,
                        NF_D_H_Q2_3D_F5_Zeta };

static double *NF_D_H_Q2_3D_T = NULL;
static double *NF_D_H_Q2_3D_S = NULL;

void NF_D_H_Q2_3D_EvalAll(TCollection *Coll, TBaseCell *Cell,
                          double *PointValues, double *Functionals)
{
  int i;
  double s;

  s = 0;
  for(i=0;i<64;i++)
    s += PointValues[i] * NF_D_H_Q2_3D_Weights[i];
  Functionals[0] = s * 0.125;

  s = 0;
  for(i=0;i<64;i++)
    s += PointValues[i] * NF_D_H_Q2_3D_Xi[i] * NF_D_H_Q2_3D_Weights[i];
  Functionals[1] = s * 0.375;

  s = 0;
  for(i=0;i<64;i++)
    s += PointValues[i] * NF_D_H_Q2_3D_Eta[i] * NF_D_H_Q2_3D_Weights[i];
  Functionals[2] = s * 0.375;

  s = 0;
  for(i=0;i<64;i++)
    s += PointValues[i] * NF_D_H_Q2_3D_Zeta[i] * NF_D_H_Q2_3D_Weights[i];
  Functionals[3] = s * 0.375;

  s = 0;
  for(i=0;i<64;i++)
    s += PointValues[i] * NF_D_H_Q2_3D_XiXi[i] * NF_D_H_Q2_3D_Weights[i];
  Functionals[4] = s * 0.15625;

  s = 0;
  for(i=0;i<64;i++)
    s += PointValues[i] * NF_D_H_Q2_3D_Xi[i] * NF_D_H_Q2_3D_Eta[i] * NF_D_H_Q2_3D_Weights[i];
  Functionals[5] = s * 1.125;

  s = 0;
  for(i=0;i<64;i++)
    s += PointValues[i] * NF_D_H_Q2_3D_Xi[i] * NF_D_H_Q2_3D_Zeta[i] * NF_D_H_Q2_3D_Weights[i];
  Functionals[6] = s * 1.125;

  s = 0;
  for(i=0;i<64;i++)
    s += PointValues[i] * NF_D_H_Q2_3D_EtaEta[i] * NF_D_H_Q2_3D_Weights[i];
  Functionals[7] = s * 0.15625;

  s = 0;
  for(i=0;i<64;i++)
    s += PointValues[i] * NF_D_H_Q2_3D_Eta[i] * NF_D_H_Q2_3D_Zeta[i] * NF_D_H_Q2_3D_Weights[i];
  Functionals[8] = s * 1.125;

  s = 0;
  for(i=0;i<64;i++)
    s += PointValues[i] * NF_D_H_Q2_3D_ZetaZeta[i] * NF_D_H_Q2_3D_Weights[i];
  Functionals[9] = s * 0.15625;

  s = 0;
  for(i=0;i<64;i++)
    s += PointValues[i] * NF_D_H_Q2_3D_XiXiEta[i] * NF_D_H_Q2_3D_Weights[i];
  Functionals[10] = s * 0.46875;

  s = 0;
  for(i=0;i<64;i++)
    s += PointValues[i] * NF_D_H_Q2_3D_XiXiZeta[i] * NF_D_H_Q2_3D_Weights[i];
  Functionals[11] = s * 0.46875;

  s = 0;
  for(i=0;i<64;i++)
    s += PointValues[i] * NF_D_H_Q2_3D_XiEtaEta[i] * NF_D_H_Q2_3D_Weights[i];
  Functionals[12] = s * 0.46875;

  s = 0;
  for(i=0;i<64;i++)
    s += PointValues[i] * NF_D_H_Q2_3D_Xi[i] * NF_D_H_Q2_3D_Eta[i] * NF_D_H_Q2_3D_Zeta[i] * NF_D_H_Q2_3D_Weights[i];
  Functionals[13] = s * 3.375;

  s = 0;
  for(i=0;i<64;i++)
    s += PointValues[i] * NF_D_H_Q2_3D_XiZetaZeta[i] * NF_D_H_Q2_3D_Weights[i];
  Functionals[14] = s * 0.46875;

  s = 0;
  for(i=0;i<64;i++)
    s += PointValues[i] * NF_D_H_Q2_3D_EtaEtaZeta[i] * NF_D_H_Q2_3D_Weights[i];
  Functionals[15] = s * 0.46875;

  s = 0;
  for(i=0;i<64;i++)
    s += PointValues[i] * NF_D_H_Q2_3D_EtaZetaZeta[i] * NF_D_H_Q2_3D_Weights[i];
  Functionals[16] = s * 0.46875 ;

  s = 0;
  for(i=0;i<64;i++)
    s += PointValues[i] * NF_D_H_Q2_3D_XiXiEtaEta[i] * NF_D_H_Q2_3D_Weights[i];
  Functionals[17] = s * 0.1953125;

  s = 0;
  for(i=0;i<64;i++)
    s += PointValues[i] * NF_D_H_Q2_3D_XiXiEtaZeta[i] * NF_D_H_Q2_3D_Weights[i];
  Functionals[18] = s * 1.40625;

  s = 0;
  for(i=0;i<64;i++)
    s += PointValues[i] * NF_D_H_Q2_3D_XiXiZetaZeta[i] * NF_D_H_Q2_3D_Weights[i];
  Functionals[19] = s * 0.1953125;

  s = 0;
  for(i=0;i<64;i++)
    s += PointValues[i] * NF_D_H_Q2_3D_XiEtaEtaZeta[i] * NF_D_H_Q2_3D_Weights[i];
  Functionals[20] = s * 1.40625;

  s = 0;
  for(i=0;i<64;i++)
    s += PointValues[i] * NF_D_H_Q2_3D_XiEtaZetaZeta[i] * NF_D_H_Q2_3D_Weights[i];
  Functionals[21] = s * 1.40625;

  s = 0;
  for(i=0;i<64;i++)
    s += PointValues[i] * NF_D_H_Q2_3D_EtaEtaZetaZeta[i] * NF_D_H_Q2_3D_Weights[i];
  Functionals[22] = s * 0.1953125;

  s = 0;
  for(i=0;i<64;i++)
    s += PointValues[i] * NF_D_H_Q2_3D_XiXiEtaEtaZeta[i] * NF_D_H_Q2_3D_Weights[i];
  Functionals[23] = s * 0.5859375;

  s = 0;
  for(i=0;i<64;i++)
    s += PointValues[i] * NF_D_H_Q2_3D_XiXiEtaZetaZeta[i] * NF_D_H_Q2_3D_Weights[i];
  Functionals[24] = s * 0.5859375;

  s = 0;
  for(i=0;i<64;i++)
    s += PointValues[i] * NF_D_H_Q2_3D_XiEtaEtaZetaZeta[i] * NF_D_H_Q2_3D_Weights[i];
  Functionals[25] = s * 0.5859375;

  s = 0;
  for(i=0;i<64;i++)
    s += PointValues[i] * NF_D_H_Q2_3D_XiXiEtaEtaZetaZeta[i] * NF_D_H_Q2_3D_Weights[i];
  Functionals[26] = s * 0.244140625;
}

void NF_D_H_Q2_3D_EvalFace(TCollection *Coll, TBaseCell *Cell, int Joint,
                           double *PointValues, double *Functionals)
{
  ErrMsg("EvalFace not implemented for discontinuous Q2-elements on hexahedra");
  exit(0);
}

static int NF_D_H_Q2_3D_N_AllFunctionals = 27;
static int NF_D_H_Q2_3D_N_PointsAll = 64;
static int NF_D_H_Q2_3D_N_FaceFunctionals[] = { 0, 0, 0, 0, 0, 0 };
static int NF_D_H_Q2_3D_N_PointsFace[] = { 0, 0, 0, 0, 0, 0 };

TNodalFunctional3D *NF_D_H_Q2_3D_Obj = new TNodalFunctional3D
        (NF_D_H_Q2_3D, NF_D_H_Q2_3D_N_AllFunctionals,
         NF_D_H_Q2_3D_N_FaceFunctionals, NF_D_H_Q2_3D_N_PointsAll,
         NF_D_H_Q2_3D_N_PointsFace,
         NF_D_H_Q2_3D_Xi, NF_D_H_Q2_3D_Eta, NF_D_H_Q2_3D_Zeta,
         NF_D_H_Q2_3D_XiArray, NF_D_H_Q2_3D_EtaArray,
         NF_D_H_Q2_3D_ZetaArray,
         NF_D_H_Q2_3D_T, NF_D_H_Q2_3D_S,
         NF_D_H_Q2_3D_EvalAll, NF_D_H_Q2_3D_EvalFace);
